{"levels":[{"inputs":[0.7134037395397386,0.4704391617329813,0,0,0],"outputs":[1,0,1,0,1,1],"biases":[-0.2857065784574137,0.15198050810320685,-0.13924253314793095,0.11578316440435818,-0.16178778119340148,-0.3000903730682978],"weights":[[-0.13515557540433842,0.07300698004528629,0.0040602602910803365,-0.06511672542187383,0.2351613353184897,-0.2012322725070096],[0.11375478789219415,0.19674169055322577,-0.10038853369062525,-0.08805459204957476,0.21925787393967702,0.15340538795108272],[0.006771304836725459,0.19973693546258126,-0.054730364561966574,-0.31855113026094745,-0.18011218120061373,-0.07367159677011853],[0.10788433228858771,-0.08604768151855152,-0.16601129743851203,-0.00019124113279275767,-0.2387343271874623,0.024133579587637094],[0.016549344407090646,0.07491472818610108,0.01776519928759422,0.061508369764843265,-0.22340799373690096,-0.04158178250497961]]},{"inputs":[1,0,1,0,1,1],"outputs":[1,1,1,0],"biases":[-0.06116069156441874,-0.0723274390864902,0.040602477018632524,0.36214587805918513],"weights":[[0.08902059474663654,-0.15740460212292795,-0.33036790341757627,-0.09502772355825113],[-0.025343350670927654,-0.3306790265709002,-0.015918008460683405,-0.3003507035765679],[0.3227266376583849,0.38057846051375693,0.18707727773028537,0.053444661926534916],[-0.2025644147140744,0.1184725671846302,-0.09069904024640596,-0.12430190885008531],[0.07527020196440684,-0.230469927588571,0.3007741658810536,0.22218297028978307],[-0.01361908920713352,0.16609276689516542,-0.09581290649261008,-0.039394098855477074]]}]}